svm_type c_svc
kernel_type rbf
gamma 0.0078125
nr_class 2
total_sv 20
rho 0.00617261
label 1 -1
nr_sv 10 10
SV
0.03125 1:-0.517405 2:0.330676 3:0.231258 4:1 5:0.0371087 6:0.187008 7:-0.432478 8:-0.915112 9:-0.81344 10:-0.0674263 11:-1 12:0.077639 13:-0.31972 14:0.578861 15:-0.377709 16:0.145994 17:-0.498067 18:0.114067 19:-0.209137 20:-0.707287 21:-0.31301 
0.03125 1:-0.412161 2:1 3:0.735115 4:0.675056 5:0.277961 6:0.148288 7:-1 8:-0.747079 9:-0.791506 10:-1 11:-0.247269 12:-0.0676818 13:-1 14:1 15:-1 16:-0.297385 17:-0.00550778 18:0.135776 19:-0.155062 20:-0.999456 21:0.159944 
0.03125 1:-0.698505 2:-0.0441921 3:0.542684 4:0.727057 5:0.379348 6:-1 7:0.222542 8:-0.959603 9:-0.524837 10:-0.817231 11:-0.655604 12:0.115757 13:-0.734531 14:0.694919 15:-0.762203 16:-0.512579 17:0.106919 18:0.0779153 19:-0.0135344 20:-0.563663 21:0.578677 
0.03125 1:-0.634952 2:0.262495 3:1 4:0.777942 5:0.187415 6:-0.00627289 7:-0.437683 8:-0.892392 9:0.171133 10:-0.947948 11:0.011236 12:-0.335466 13:-0.315983 14:0.655656 15:0.940661 16:-0.456282 17:-0.0156054 18:-0.112847 19:0.773733 20:-0.473094 21:0.233653 
0.03125 1:0.198454 2:-0.0583524 3:0.23488 4:0.575807 5:0.162246 6:-0.00251552 7:-0.551844 8:-0.698035 9:-0.796964 10:-0.844545 11:0.184991 12:0.115381 13:-0.580736 14:0.55356 15:0.206953 16:-0.67891 17:-0.529471 18:1 19:-0.823769 20:-0.348843 21:0.159859 
0.03125 1:-1 2:0.180954 3:0.338277 4:0.903164 5:0.0613101 6:-0.00334342 7:-0.364305 8:-0.784801 9:-1 10:0.235914 11:-0.77689 12:-0.0782549 13:-0.499719 14:0.584555 15:0.592181 16:-0.551188 17:0.138467 18:0.0631044 19:0.453197 20:-0.847276 21:0.274754 
0.03125 1:0.374403 2:-0.2416 3:0.564591 4:0.719764 5:-0.191223 6:0.210317 7:0.000831894 8:-0.778081 9:-0.00178409 10:-0.185032 11:-0.246698 12:0.45574 13:0.45596 14:0.538575 15:0.322331 16:-0.751428 17:-0.510871 18:0.190563 19:-0.427643 20:-0.909087 21:1 
0.03125 1:-0.157204 2:-1 3:0.406853 4:0.684707 5:0.0356244 6:-0.330107 7:0.227448 8:-0.956081 9:-0.131603 10:-0.531138 11:0.185718 12:-0.174063 13:-0.849378 14:0.859087 15:0.243408 16:-0.816031 17:0.210407 18:0.114303 19:-0.80465 20:-0.796712 21:0.480936 
0.03125 1:-0.196353 2:-0.408285 3:0.00946171 4:0.912833 5:0.172701 6:-0.51167 7:0.226126 8:-0.908441 9:-0.349612 10:-0.670361 11:-0.0616291 12:-0.0819846 13:-0.760633 14:0.666565 15:0.706898 16:-1 17:-0.992366 18:0.302403 19:0.104836 20:-1 21:0.694973 
0.03125 1:-0.508355 2:-0.716683 3:0.110728 4:0.723036 5:-0.164247 6:-0.821939 7:0.0771955 8:-0.923468 9:-0.859022 10:-0.1258 11:-0.529491 12:0.197742 13:-0.867035 14:0.745224 15:-0.0478601 16:-0.86832 17:0.148903 18:0.217141 19:0.140802 20:-0.918645 21:0.795941 
-0.03125 1:0.375318 2:0.89225 3:-0.304735 4:-0.529199 5:1 6:0.547206 7:0.793733 8:-0.979507 9:0.100784 10:-0.390432 11:0.158938 12:-0.961642 13:0.606172 14:-1 15:0.564162 16:-0.18792 17:0.396608 18:0.340805 19:-1 20:0.479876 21:-0.404806 
-0.03125 1:1 2:-0.163299 3:-0.100371 4:-0.716053 5:0.15476 6:0.538863 7:1 8:-0.803109 9:-0.337368 10:0.219057 11:0.308301 12:-0.72633 13:0.218333 14:-0.5495 15:0.38233 16:-0.493933 17:0.379505 18:0.566057 19:-0.200934 20:0.603783 21:-1 
-0.03125 1:0.195472 2:-0.809654 3:-0.23812 4:-0.472665 5:0.0186512 6:-0.508995 7:0.796506 8:-0.212362 9:1 10:-0.180974 11:0.862314 12:-0.966707 13:0.329034 14:-0.606143 15:0.17622 16:-0.0586868 17:-0.337279 18:0.610137 19:0.661419 20:-0.0439971 21:-0.331776 
-0.03125 1:0.681659 2:0.136981 3:0.33133 4:-0.86818 5:0.697193 6:0.37494 7:0.618396 8:1 9:0.639369 10:-0.587326 11:1 12:-0.711001 13:0.213675 14:-0.0374894 15:0.586166 16:-0.51427 17:-1 18:0.644053 19:0.316655 20:1 21:0.16954 
-0.03125 1:0.377758 2:-0.344145 3:0.914291 4:-0.808814 5:-0.826654 6:-0.506448 7:0.982082 8:-0.996661 9:-0.535157 10:1 11:-0.768534 12:-0.704534 13:-0.0435027 14:-0.563149 15:0.925844 16:-0.817981 17:0.260943 18:0.353248 19:0.915071 20:0.515131 21:0.355936 
-0.03125 1:0.638681 2:-0.54421 3:-1 4:-0.379247 5:-0.355276 6:0.191721 7:0.239265 8:-1 9:-0.0212692 10:-0.135165 11:-0.79386 12:-0.979949 13:-0.307692 14:-0.349551 15:0.219129 16:1 17:1 18:-1 19:0.949711 20:0.0429669 21:0.492272 
-0.03125 1:-0.0701963 2:-0.111427 3:-0.228061 4:-0.352178 5:0.2586 6:-0.697628 7:-0.00369019 8:-0.997275 9:-0.0738124 10:0.616591 11:-0.708851 12:-0.660291 13:-0.124878 14:-0.722564 15:0.408002 16:-0.104607 17:0.376413 18:0.395754 19:1 20:-0.0826 21:0.313052 
-0.03125 1:0.122699 2:0.807834 3:0.428163 4:-1 5:-1 6:1 7:-0.212474 8:-0.0407995 9:-0.655006 10:-0.435773 11:0.199315 12:1 13:1 14:-0.37312 15:-0.0183739 16:0.11099 17:-0.793845 18:0.464852 19:0.688677 20:0.458385 21:-0.0413553 
-0.03125 1:0.557469 2:-0.0583524 3:-0.453011 4:-0.5364 5:-0.152501 6:-0.29266 7:0.312003 8:-0.950192 9:0.0964458 10:-0.0242703 11:-0.0748631 12:-0.978854 13:0.352782 14:-0.094528 15:0.992372 16:0.112509 17:-0.260073 18:0.729036 19:0.467016 20:-0.105693 21:-0.858611 
-0.03125 1:0.707284 2:-0.874085 3:-0.00916336 4:-0.567034 5:0.368054 6:-0.670053 7:0.00305028 8:-0.960741 9:0.467222 10:-0.144686 11:0.709993 12:-1 13:-0.305952 14:0.82494 15:1 16:-0.00483599 17:-0.247125 18:0.618388 19:0.432628 20:0.4496 21:-0.563137 
